{
  "name": "mut_d79a6842",
  "features": {
    "sma_period": 30,
    "take_profit": 0.05637823886306105,
    "rl_agent": {
      "hidden_layers": [
        103
      ],
      "learning_rate": 0.0008896412751767679,
      "gamma": 0.9904125846964144,
      "epsilon": 0.043486872911895715,
      "weights": [
        [
          [
            1.1910858154296875,
            -0.8186050057411194,
            1.092106819152832,
            -0.5479053258895874,
            -1.335862398147583,
            0.7241365313529968,
            1.2907583713531494,
            2.587908983230591,
            -1.1997252702713013,
            0.6989197134971619,
            -0.4098012447357178,
            0.7833586931228638,
            -1.470489501953125,
            -1.2627698183059692,
            -0.7758747935295105,
            0.07896404713392258,
            -0.6410812735557556,
            0.6590543389320374,
            1.0268945693969727,
            0.5995775461196899,
            1.6187876462936401,
            0.41582661867141724,
            -1.216896653175354,
            1.363376498222351,
            -0.6051562428474426,
            0.9104185104370117,
            1.573734164237976,
            0.4566880166530609,
            -1.4961588382720947,
            -0.9182121753692627,
            1.3227444887161255,
            -0.16912268102169037
          ],
          [
            0.07957353442907333,
            0.7588244080543518,
            0.6963228583335876,
            0.27879980206489563,
            -0.20866836607456207,
            -0.31266844272613525,
            0.8578988313674927,
            0.5535695552825928,
            -0.2572999894618988,
            1.0821123123168945,
            -0.1290341168642044,
            -0.8516621589660645,
            -0.7589706778526306,
            -0.9787408113479614,
            -0.27241000533103943,
            1.2337242364883423,
            -0.8050951957702637,
            0.18847575783729553,
            -0.6566893458366394,
            -0.26030904054641724,
            -1.5100412368774414,
            -0.22053822875022888,
            -0.19370537996292114,
            0.540287971496582,
            0.2232809066772461,
            -1.1983921527862549,
            1.084198236465454,
            0.21030303835868835,
            0.19839352369308472,
            -0.009182353504002094,
            -0.5177574753761292,
            0.21780234575271606
          ],
          [
            0.47558844089508057,
            -1.746895670890808,
            -0.5387608408927917,
            -0.2549469769001007,
            0.2561706006526947,
            1.1933109760284424,
            -0.7717407941818237,
            -0.4979618489742279,
            -0.5125340819358826,
            -0.8015276193618774,
            -0.34718650579452515,
            0.7708021998405457,
            -1.0538355112075806,
            0.42781439423561096,
            -1.7019022703170776,
            -0.5613380074501038,
            -0.3294892907142639,
            1.674859642982483,
            -0.2748022973537445,
            -2.2012434005737305,
            -1.9988888502120972,
            0.03402958810329437,
            0.6137708425521851,
            0.3754558563232422,
            0.167570099234581,
            1.162259578704834,
            -0.5395911931991577,
            0.8949105739593506,
            -1.6320148706436157,
            -0.904947817325592,
            -1.8070414066314697,
            -0.27484530210494995
          ],
          [
            -0.04626121744513512,
            0.11410149186849594,
            0.0618833526968956,
            -0.9275533556938171,
            -0.19024084508419037,
            -1.4974466562271118,
            1.3632289171218872,
            -0.30362606048583984,
            -0.48888611793518066,
            1.5889403820037842,
            -1.2422465085983276,
            -1.1255871057510376,
            -1.0962203741073608,
            -0.06787138432264328,
            0.4316316246986389,
            0.7396754622459412,
            2.571995258331299,
            -2.2494325637817383,
            0.6087355613708496,
            -0.5571305751800537,
            -0.58641517162323,
            -0.6197721362113953,
            -0.9087696671485901,
            1.6845248937606812,
            0.8422973155975342,
            0.02319597825407982,
            1.3510158061981201,
            -1.5125290155410767,
            -1.330705165863037,
            -2.1779677867889404,
            -0.6994145512580872,
            0.16169852018356323
          ],
          [
            0.10285858064889908,
            0.1493419110774994,
            -1.4110568761825562,
            0.8031547665596008,
            0.23962752521038055,
            0.7330542802810669,
            -1.8927621841430664,
            0.31149086356163025,
            -1.1877652406692505,
            -0.39732325077056885,
            0.5343648791313171,
            0.09109360724687576,
            -0.8515399694442749,
            0.006273156031966209,
            -1.531535267829895,
            1.1502673625946045,
            -0.2052840143442154,
            1.1185499429702759,
            -0.5265316963195801,
            -0.5235759615898132,
            -0.7641867995262146,
            0.8761739134788513,
            -0.7094311714172363,
            0.6445954442024231,
            -0.3824523985385895,
            -1.9759633541107178,
            -0.5703140497207642,
            -1.1791082620620728,
            0.03390272334218025,
            -1.1904077529907227,
            0.9259750843048096,
            -0.09107585996389389
          ],
          [
            -0.17759598791599274,
            0.6558921337127686,
            0.9639069437980652,
            -0.020098751410841942,
            -0.7712002992630005,
            -1.7739696502685547,
            -0.68604975938797,
            -0.6172122359275818,
            0.10705745220184326,
            -0.34514689445495605,
            0.6879329681396484,
            -0.6129832863807678,
            -0.057041168212890625,
            1.1839874982833862,
            0.3418252170085907,
            -0.06003754213452339,
            -0.6019444465637207,
            -0.6332314014434814,
            -0.8506132364273071,
            -0.541006863117218,
            0.7556658387184143,
            -0.22188827395439148,
            -1.3497730493545532,
            1.7681692838668823,
            0.3199651837348938,
            -1.406943440437317,
            -0.4418489336967468,
            0.11088638007640839,
            1.7045921087265015,
            -1.1081124544143677,
            0.9760407209396362,
            1.3994864225387573
          ],
          [
            -0.6286543011665344,
            -0.27751362323760986,
            -1.0363092422485352,
            -0.20346114039421082,
            -0.03658997267484665,
            0.6596500277519226,
            1.0901834964752197,
            -0.7480960488319397,
            -1.9673250913619995,
            -0.021244779229164124,
            0.29353752732276917,
            0.24941769242286682,
            -0.3266732394695282,
            0.12475209683179855,
            1.5154447555541992,
            0.381734162569046,
            -0.37336841225624084,
            -0.5001978278160095,
            -0.1698523610830307,
            1.63673996925354,
            -0.1833007037639618,
            -0.019794344902038574,
            -0.4823135733604431,
            1.0989834070205688,
            1.9598371982574463,
            0.4506130516529083,
            0.08277290314435959,
            0.03678283467888832,
            -2.3843069076538086,
            0.7451508641242981,
            0.134166419506073,
            0.4283420443534851
          ],
          [
            -0.7114621996879578,
            -0.3844568729400635,
            -0.41102492809295654,
            1.0216230154037476,
            -0.37875983119010925,
            2.082660436630249,
            0.4308624267578125,
            -1.2756826877593994,
            -0.12854629755020142,
            -0.6516751050949097,
            -2.194382429122925,
            1.5994709730148315,
            0.703142523765564,
            0.5332072973251343,
            0.16540366411209106,
            -1.3820176124572754,
            -0.4836171269416809,
            0.8417807817459106,
            -1.0512200593948364,
            -2.531769275665283,
            -0.2271060049533844,
            -0.1417575478553772,
            0.1355634182691574,
            0.7285186648368835,
            0.6376057863235474,
            0.25876981019973755,
            1.1955313682556152,
            -1.5189697742462158,
            0.5045818090438843,
            0.6265383362770081,
            -1.2395622730255127,
            -1.5028705596923828
          ],
          [
            -0.7459421157836914,
            -0.6615414619445801,
            0.7534194588661194,
            -0.6145387887954712,
            -0.8563485145568848,
            -0.6116337180137634,
            1.1186323165893555,
            0.013043374754488468,
            -0.179251030087471,
            -0.11000549793243408,
            1.292060375213623,
            -0.7491717338562012,
            1.315508246421814,
            0.21049629151821136,
            -0.16041937470436096,
            2.5009005069732666,
            -1.0556395053863525,
            -0.35368576645851135,
            -1.2324312925338745,
            0.9524619579315186,
            1.6891889572143555,
            1.6699228286743164,
            1.2239487171173096,
            -0.1976204663515091,
            -0.36524099111557007,
            -1.6711697578430176,
            2.0358736515045166,
            0.46897807717323303,
            -0.4919569194316864,
            1.3280569314956665,
            -0.9727644920349121,
            0.4066220223903656
          ],
          [
            -0.17262913286685944,
            0.6386771202087402,
            -0.06357353925704956,
            -1.4509278535842896,
            0.07557637244462967,
            1.0488641262054443,
            -0.029216405004262924,
            0.7751151323318481,
            -1.0455294847488403,
            -0.026260793209075928,
            -0.6245104670524597,
            0.7469808459281921,
            0.031491562724113464,
            0.6900736689567566,
            1.0877103805541992,
            0.6916185617446899,
            0.27311843633651733,
            -0.9982122778892517,
            -0.002786110620945692,
            -0.5330904126167297,
            -0.34406396746635437,
            -0.37453415989875793,
            -0.9799255728721619,
            -1.957338571548462,
            -0.6681430339813232,
            0.1933794468641281,
            -1.3481770753860474,
            0.015682237222790718,
            1.9002684354782104,
            1.0230565071105957,
            1.6435414552688599,
            0.39112788438796997
          ],
          [
            1.1675097942352295,
            -0.7239647507667542,
            -0.6443402767181396,
            -2.739140272140503,
            1.1861454248428345,
            1.5403239727020264,
            -0.5531772375106812,
            -0.25395169854164124,
            -0.7538621425628662,
            0.3826535642147064,
            1.1249325275421143,
            -1.7427719831466675,
            0.40943852066993713,
            -0.27667176723480225,
            0.11339439451694489,
            0.4589940011501312,
            -0.18820244073867798,
            -0.10358685255050659,
            -0.2138751745223999,
            0.9703162312507629,
            0.4187599718570709,
            0.22058354318141937,
            -1.270951747894287,
            -0.3785797357559204,
            0.8986691832542419,
            0.03769657388329506,
            0.6595314741134644,
            1.7665117979049683,
            1.03860604763031,
            0.09315833449363708,
            -0.5109891891479492,
            -2.5535495281219482
          ],
          [
            -0.16838492453098297,
            -0.3260124921798706,
            0.39036619663238525,
            -0.1539052277803421,
            -0.32038506865501404,
            -1.7793989181518555,
            -0.9399678111076355,
            0.47665104269981384,
            1.7159075736999512,
            -0.09752538055181503,
            0.327811062335968,
            0.9524781703948975,
            -0.8108939528465271,
            0.3668140470981598,
            -0.7404900789260864,
            0.8648244142532349,
            0.1514030545949936,
            0.29845181107521057,
            -0.782598614692688,
            0.7070323824882507,
            2.0847129821777344,
            -1.0079116821289062,
            -0.3397590219974518,
            0.23160746693611145,
            0.7864062190055847,
            -0.5595462918281555,
            -2.8330302238464355,
            1.359189510345459,
            0.7605060935020447,
            -1.7429475784301758,
            -0.6075688004493713,
            1.5681824684143066
          ],
          [
            1.4477964639663696,
            0.9386399984359741,
            -0.17611242830753326,
            0.08298742026090622,
            -0.13092580437660217,
            1.1282397508621216,
            -0.8758423924446106,
            -0.805799663066864,
            1.0102745294570923,
            -0.044361457228660583,
            1.378467321395874,
            -0.6715121865272522,
            -0.054778359830379486,
            -0.9224129915237427,
            0.007362681441009045,
            -1.4785469770431519,
            -0.4876334071159363,
            -1.4362539052963257,
            0.6939232349395752,
            0.7165893316268921,
            -1.7302627563476562,
            1.3338857889175415,
            2.497415065765381,
            0.04600638523697853,
            -0.6411142349243164,
            2.8243305683135986,
            -1.3189685344696045,
            0.020106466487050056,
            0.17962227761745453,
            1.3451476097106934,
            0.3597389757633209,
            -0.49863389134407043
          ],
          [
            -0.9511843919754028,
            -0.3418218195438385,
            -1.0069273710250854,
            0.047825321555137634,
            -0.5641961693763733,
            -1.4940377473831177,
            1.255145788192749,
            -0.49767252802848816,
            -1.2681368589401245,
            -0.1682591289281845,
            0.06837156414985657,
            -1.7464667558670044,
            0.331647664308548,
            -1.0471575260162354,
            1.711028814315796,
            0.523960530757904,
            -0.39989998936653137,
            -0.7451677918434143,
            -0.10496770590543747,
            0.6127907633781433,
            -0.025494128465652466,
            -0.21715880930423737,
            0.05837029218673706,
            -0.6038589477539062,
            -0.34320592880249023,
            -2.0857925415039062,
            0.973726212978363,
            0.2987977862358093,
            -0.7734558582305908,
            1.8987349271774292,
            0.08701647818088531,
            -1.0361435413360596
          ],
          [
            0.8567374348640442,
            0.3980482220649719,
            0.3945799767971039,
            -0.4257555902004242,
            0.45049571990966797,
            -0.26175829768180847,
            0.5559414625167847,
            -1.9049444198608398,
            -0.4338734745979309,
            1.7221550941467285,
            -0.7670674324035645,
            -0.603838324546814,
            -0.44796133041381836,
            -1.214806079864502,
            -2.2082808017730713,
            -0.23058639466762543,
            0.1358594298362732,
            -0.052505068480968475,
            -0.1448785662651062,
            0.04304087162017822,
            1.022841453552246,
            -0.1904461830854416,
            -0.5740825533866882,
            -0.2811254858970642,
            0.579346776008606,
            1.4120268821716309,
            -0.6281437277793884,
            0.09893378615379333,
            0.33835744857788086,
            -0.9925780296325684,
            0.020417166873812675,
            -1.465673804283142
          ],
          [
            -1.7690503597259521,
            0.3667463958263397,
            -0.3838747441768646,
            0.20228040218353271,
            -0.01789497770369053,
            -0.9764000773429871,
            -0.04525430127978325,
            -1.23310124874115,
            1.390972375869751,
            -1.3559703826904297,
            -0.1957852691411972,
            -1.042271614074707,
            0.5704211592674255,
            -0.3314313590526581,
            -0.5186667442321777,
            0.8532015681266785,
            0.02943059243261814,
            0.5166444182395935,
            -0.9813259243965149,
            -1.40481698513031,
            0.10720796138048172,
            -0.31884634494781494,
            0.6264346837997437,
            -0.07990845292806625,
            0.20507533848285675,
            -1.623382568359375,
            1.8884369134902954,
            -0.1642419844865799,
            0.6975869536399841,
            -0.8360916972160339,
            0.30800989270210266,
            -1.302844762802124
          ],
          [
            0.45206785202026367,
            -0.35597407817840576,
            0.02919050306081772,
            0.6979740262031555,
            -1.2325403690338135,
            -0.684491753578186,
            0.4573242664337158,
            2.09822154045105,
            -0.1380823403596878,
            0.59113609790802,
            -0.10697147250175476,
            1.942245602607727,
            -1.7472217082977295,
            0.09462104737758636,
            -1.6255440711975098,
            -2.5065715312957764,
            0.2974620461463928,
            0.1394978016614914,
            -0.28483694791793823,
            -0.10619408637285233,
            3.098299503326416,
            -0.2581751346588135,
            0.5101243853569031,
            -0.6493648290634155,
            0.2952325642108917,
            -0.23823367059230804,
            -0.41051849722862244,
            1.8188985586166382,
            1.1771849393844604,
            0.13674664497375488,
            -2.3042118549346924,
            -0.3610092103481293
          ],
          [
            2.7030274868011475,
            -0.23066166043281555,
            1.103217601776123,
            1.4419424533843994,
            0.21896392107009888,
            -0.8418216109275818,
            -2.435312271118164,
            0.6841632127761841,
            -0.8147559762001038,
            0.17615045607089996,
            -1.249820351600647,
            -0.2652375400066376,
            0.033719055354595184,
            0.26859357953071594,
            -1.1148221492767334,
            1.1969109773635864,
            -0.5968948006629944,
            -1.6744694709777832,
            -0.10902342200279236,
            0.03437530994415283,
            0.16058942675590515,
            1.3621324300765991,
            -0.23644883930683136,
            -0.11961962282657623,
            -1.1031843423843384,
            0.8205534815788269,
            0.18430906534194946,
            -0.4200277328491211,
            -1.9046746492385864,
            1.4444122314453125,
            -1.227679967880249,
            -0.5912780165672302
          ],
          [
            0.35834452509880066,
            -1.196557879447937,
            -1.4935097694396973,
            -2.1239476203918457,
            0.7209969758987427,
            -0.5451862215995789,
            2.9272701740264893,
            -0.9943550825119019,
            -0.9214510321617126,
            -0.5653929710388184,
            0.24313466250896454,
            -0.47020334005355835,
            0.6123322248458862,
            -0.9785884022712708,
            -1.3815916776657104,
            -1.7982147932052612,
            -2.223574161529541,
            -0.5180690288543701,
            -0.3009802997112274,
            -0.6314370036125183,
            1.243405818939209,
            1.2280302047729492,
            -0.3348029851913452,
            -1.7939211130142212,
            -0.5667051076889038,
            -0.5998213887214661,
            -0.6571349501609802,
            -0.6977189183235168,
            -0.6534628868103027,
            -0.38654160499572754,
            -0.6355410814285278,
            0.20832251012325287
          ],
          [
            0.3603687286376953,
            -0.910645067691803,
            1.271065354347229,
            -0.9800623059272766,
            -1.6178005933761597,
            0.38077807426452637,
            -0.8174081444740295,
            0.3212914764881134,
            -2.4036686420440674,
            1.3924559354782104,
            0.6722934246063232,
            -1.500476598739624,
            -1.4787771701812744,
            1.672265887260437,
            -0.7373799085617065,
            -0.8341848254203796,
            -2.266052007675171,
            -0.350778192281723,
            -0.22771961987018585,
            0.7154930830001831,
            -1.399078369140625,
            -1.5202867984771729,
            0.450962632894516,
            1.006730079650879,
            -1.5711523294448853,
            1.0815141201019287,
            0.037541840225458145,
            1.091805338859558,
            -0.07022035866975784,
            -2.52227783203125,
            -0.1519673764705658,
            1.0601438283920288
          ],
          [
            -0.893746018409729,
            -0.38796496391296387,
            -0.17613349854946136,
            -2.8995139598846436,
            1.6713476181030273,
            -0.9013756513595581,
            0.505735456943512,
            -0.08670113980770111,
            1.257619023323059,
            0.40605613589286804,
            -0.23492427170276642,
            -0.8935151100158691,
            0.7978507280349731,
            -1.8734413385391235,
            0.6458904147148132,
            -1.0990447998046875,
            1.2522836923599243,
            0.16129954159259796,
            0.6441237926483154,
            0.08198881149291992,
            -1.7523771524429321,
            -0.8607291579246521,
            0.6723893284797668,
            0.16665582358837128,
            1.1809898614883423,
            0.4032745659351349,
            -0.966701865196228,
            -0.7960641384124756,
            0.1029173880815506,
            -2.3140439987182617,
            1.6734418869018555,
            0.4417467415332794
          ],
          [
            1.227034568786621,
            -1.5806039571762085,
            1.2445651292800903,
            2.231498956680298,
            -1.3208783864974976,
            0.7714018225669861,
            0.0011099446564912796,
            -1.544433832168579,
            0.49288398027420044,
            0.8336032032966614,
            -0.6011265516281128,
            1.1659165620803833,
            -1.666763424873352,
            -1.4947561025619507,
            0.1365973949432373,
            0.025385277345776558,
            -0.7165734767913818,
            0.809594452381134,
            0.5308943390846252,
            0.8581390976905823,
            -0.12313643842935562,
            0.6025802493095398,
            -0.4456503093242645,
            2.053818702697754,
            -0.8125457763671875,
            2.105297327041626,
            0.034887947142124176,
            -1.3755109310150146,
            1.3680793046951294,
            0.12590138614177704,
            0.851124107837677,
            1.223855972290039
          ],
          [
            0.3379555642604828,
            -0.5922408699989319,
            0.9757133722305298,
            0.0007555074407719076,
            0.6858578324317932,
            -2.153730630874634,
            0.4469817280769348,
            -0.6385858058929443,
            1.6533095836639404,
            0.6230873465538025,
            0.2398577481508255,
            0.4863100051879883,
            -0.9984408617019653,
            1.6232566833496094,
            1.991370439529419,
            0.3929135203361511,
            1.5904035568237305,
            -0.5691481828689575,
            -0.7971135377883911,
            0.04092475026845932,
            0.43494102358818054,
            -0.39398667216300964,
            0.5377681851387024,
            0.3063894808292389,
            -0.9983067512512207,
            0.5187930464744568,
            0.8635282516479492,
            0.1714693158864975,
            1.1526480913162231,
            -1.217403769493103,
            0.4679504334926605,
            -1.1702806949615479
          ],
          [
            -1.1140813827514648,
            -0.6309308409690857,
            -0.9420601725578308,
            -0.5479958057403564,
            -0.2141503095626831,
            0.8371545076370239,
            -0.3211590349674225,
            -1.5856256484985352,
            1.1400678157806396,
            -0.8370901346206665,
            -0.0587204284965992,
            0.44653651118278503,
            0.1996104121208191,
            1.0941795110702515,
            0.4790031313896179,
            -0.8613095879554749,
            2.1785621643066406,
            0.19433346390724182,
            -0.14734022319316864,
            0.9639254212379456,
            0.2494509518146515,
            0.39922818541526794,
            2.4921839237213135,
            -0.27512142062187195,
            -0.3177608847618103,
            0.11657851189374924,
            1.0715159177780151,
            -1.5065339803695679,
            -1.9655559062957764,
            -0.5871152877807617,
            -1.6339229345321655,
            -0.424831360578537
          ],
          [
            0.5024996995925903,
            -0.8907488584518433,
            -1.4268265962600708,
            0.0693371593952179,
            0.8625434637069702,
            -1.6949734687805176,
            0.8202323913574219,
            0.8173062205314636,
            0.954085111618042,
            1.2184802293777466,
            2.2020139694213867,
            -0.35609203577041626,
            0.10957158356904984,
            -0.41643843054771423,
            0.0019768448546528816,
            1.5328733921051025,
            -1.3450144529342651,
            -0.8610496520996094,
            1.3771809339523315,
            1.0200364589691162,
            -0.36313164234161377,
            0.8544020056724548,
            0.3412158489227295,
            1.500274658203125,
            0.07450959086418152,
            1.0256321430206299,
            2.642011880874634,
            0.5980991721153259,
            0.049328166991472244,
            0.7224469780921936,
            -0.3652808666229248,
            2.387967586517334
          ],
          [
            0.18007104098796844,
            -0.27293333411216736,
            -0.8356890082359314,
            1.0972201824188232,
            0.8671874403953552,
            -0.4973543584346771,
            0.5764513611793518,
            -1.5085560083389282,
            0.18497057259082794,
            0.4527563452720642,
            1.7073297500610352,
            -0.770818829536438,
            -1.2783526182174683,
            -0.895427942276001,
            -1.3365684747695923,
            1.3366574048995972,
            1.5486392974853516,
            0.320216566324234,
            1.2212949991226196,
            0.1339583843946457,
            -0.09511164575815201,
            -0.3330376148223877,
            -0.31039097905158997,
            -1.5478016138076782,
            0.26425474882125854,
            -0.040333911776542664,
            0.7453607320785522,
            0.09352349489927292,
            -0.1627037078142166,
            -0.8711930513381958,
            0.072153240442276,
            0.738237202167511
          ],
          [
            -1.1433390378952026,
            0.08747375011444092,
            0.23304295539855957,
            -0.7180647850036621,
            -0.5878562927246094,
            0.23061084747314453,
            -1.1334210634231567,
            0.3499237298965454,
            -0.8953543901443481,
            1.0628536939620972,
            2.337827682495117,
            -0.8607568144798279,
            0.5342078804969788,
            -0.7267419099807739,
            1.0409542322158813,
            -1.2652584314346313,
            0.4805867671966553,
            -0.8729889392852783,
            -0.20698459446430206,
            -1.0310252904891968,
            0.8223504424095154,
            -0.8369803428649902,
            0.551964282989502,
            -0.3440980315208435,
            -0.11447237432003021,
            0.14775590598583221,
            -0.7618246674537659,
            0.2103671133518219,
            1.5303345918655396,
            -0.7780947685241699,
            1.1718101501464844,
            1.4980976581573486
          ],
          [
            -0.8161550164222717,
            -1.4550546407699585,
            0.30196088552474976,
            -0.5474075078964233,
            1.868603229522705,
            0.034807540476322174,
            -0.8021994233131409,
            -1.147159457206726,
            1.0899049043655396,
            -0.571183979511261,
            0.043828800320625305,
            0.9558027386665344,
            -0.48425835371017456,
            -0.04592882841825485,
            -0.016568409278988838,
            0.6833245158195496,
            0.5907443165779114,
            -0.22011372447013855,
            0.06364905834197998,
            -0.37177902460098267,
            -1.4776123762130737,
            0.2576008439064026,
            1.892191767692566,
            -0.8837191462516785,
            -0.7730296850204468,
            -0.8707277774810791,
            0.7245917916297913,
            0.44848546385765076,
            -0.15853768587112427,
            -0.9180190563201904,
            0.09237679094076157,
            -1.564622163772583
          ],
          [
            0.1434265673160553,
            0.8715243935585022,
            -1.2511991262435913,
            -1.5325182676315308,
            1.5794378519058228,
            -0.6117596626281738,
            1.135947823524475,
            -0.15399765968322754,
            -0.1619548201560974,
            0.43841269612312317,
            -0.8839988708496094,
            0.1324971467256546,
            -0.38148942589759827,
            -1.320493459701538,
            0.3374820649623871,
            -0.2633078098297119,
            -0.1570248305797577,
            -1.2101609706878662,
            1.591400384902954,
            0.8767141699790955,
            0.964155912399292,
            -0.3054446876049042,
            -1.7291828393936157,
            1.9529173374176025,
            -0.06109750643372536,
            -0.7487998008728027,
            0.4168015718460083,
            1.1671208143234253,
            -0.02305055595934391,
            1.2785751819610596,
            1.0829999446868896,
            -1.0763812065124512
          ],
          [
            -0.6737900972366333,
            0.9575371742248535,
            -2.7126126289367676,
            -0.1494556963443756,
            -1.4308311939239502,
            -0.4765537977218628,
            -0.2988200783729553,
            -0.358244389295578,
            -0.552261233329773,
            -1.0971436500549316,
            2.2919113636016846,
            1.8674620389938354,
            -1.162065863609314,
            1.582116723060608,
            -0.39946550130844116,
            0.1291874796152115,
            -0.06327395886182785,
            -0.6597486138343811,
            0.9838523268699646,
            0.12588652968406677,
            -0.4765514135360718,
            -1.3045893907546997,
            -0.8935950398445129,
            -1.6413800716400146,
            0.012223548255860806,
            -1.196665644645691,
            -0.265560507774353,
            1.370101809501648,
            1.1992995738983154,
            -0.03227689489722252,
            -0.08708472549915314,
            1.879874587059021
          ],
          [
            0.5207561254501343,
            -0.3278064727783203,
            -1.4260181188583374,
            0.3938732147216797,
            0.8293237686157227,
            -0.6316515207290649,
            0.29120275378227234,
            -0.363573282957077,
            -0.1840323954820633,
            -2.4878220558166504,
            -0.2217814028263092,
            0.9693692922592163,
            -0.6314025521278381,
            0.05252636969089508,
            -0.7559506893157959,
            0.3604416847229004,
            -0.2165232002735138,
            -0.9392415285110474,
            1.3325514793395996,
            0.9289320111274719,
            -0.6049067378044128,
            0.49778831005096436,
            0.5374119877815247,
            0.6423012614250183,
            -1.6942559480667114,
            1.0066065788269043,
            -0.5696989893913269,
            -0.35782793164253235,
            2.6378817558288574,
            0.3018733859062195,
            -0.3863224685192108,
            -2.205294370651245
          ],
          [
            1.3897641897201538,
            -1.3452097177505493,
            -1.003438949584961,
            -0.3313522934913635,
            1.4164117574691772,
            0.7732399702072144,
            -0.15783751010894775,
            0.30829206109046936,
            -0.6003856658935547,
            0.13965368270874023,
            0.07333674281835556,
            0.968769907951355,
            0.9671781063079834,
            0.4939773678779602,
            -0.3623475432395935,
            0.7418223023414612,
            -0.09196846932172775,
            -1.0819144248962402,
            -0.403287798166275,
            0.08452698588371277,
            0.9102157950401306,
            -0.18352816998958588,
            -1.2091987133026123,
            0.056741684675216675,
            0.11345604062080383,
            0.18583762645721436,
            0.9198715090751648,
            1.018923282623291,
            -0.5942108631134033,
            -0.6161434650421143,
            -1.0401986837387085,
            0.698815643787384
          ]
        ]
      ]
    },
    "stop_loss": 0.03788736608889529,
    "trade_size": 0.1494640047143745,
    "stoch_k": true,
    "use_rsi": true
  },
  "score": 0.4017361790772194,
  "metrics": {
    "is_sharpe": 3.4175523676957025,
    "is_max_drawdown": 2.6444272880969413,
    "is_win_rate": 0.5546875,
    "oos_sharpe": 0.9947519221491004,
    "oos_max_drawdown": 1.3333099142746885,
    "oos_win_rate": 0.660377358490566,
    "overfitting_penalty": 1.0,
    "trade_count": 324
  }
}